%YAML:1.0
---
opencv_ml_svm:
   format: 3
   svmType: C_SVC
   kernel:
      type: INTER
      gamma: 1.
   C: 1.
   term_criteria: { epsilon:1.0000000000000000e-02, iterations:100 }
   var_count: 2
   class_count: 2
   class_labels: !!opencv-matrix
      rows: 2
      cols: 1
      dt: i
      data: [ 0, 1 ]
   sv_total: 60
   support_vectors:
      - [ 372., 265. ]
      - [ 433., 183. ]
      - [ 345., 283. ]
      - [ 310., 287. ]
      - [ 266., 295. ]
      - [ 285., 316. ]
      - [ 328., 315. ]
      - [ 449., 225. ]
      - [ 458., 191. ]
      - [ 456., 157. ]
      - [ 192., 82. ]
      - [ 151., 110. ]
      - [ 118., 148. ]
      - [ 17., 394. ]
      - [ 14., 426. ]
      - [ 306., 303. ]
      - [ 440., 152. ]
      - [ 146., 96. ]
      - [ 112., 179. ]
      - [ 310., 183. ]
      - [ 262., 155. ]
      - [ 276., 182. ]
      - [ 287., 186. ]
      - [ 469., 383. ]
      - [ 616., 72. ]
      - [ 627., 32. ]
      - [ 626., 62. ]
      - [ 602., 102. ]
      - [ 511., 337. ]
      - [ 176., 328. ]
      - [ 189., 291. ]
      - [ 194., 269. ]
      - [ 223., 228. ]
      - [ 249., 199. ]
      - [ 289., 176. ]
      - [ 358., 170. ]
      - [ 370., 171. ]
      - [ 313., 155. ]
      - [ 306., 159. ]
      - [ 283., 156. ]
      - [ 145., 311. ]
      - [ 448., 393. ]
      - [ 442., 436. ]
      - [ 358., 328. ]
      - [ 314., 340. ]
      - [ 288., 339. ]
      - [ 278., 327. ]
      - [ 256., 312. ]
      - [ 248., 293. ]
      - [ 283., 301. ]
      - [ 186., 55. ]
      - [ 346., 199. ]
      - [ 330., 190. ]
      - [ 318., 180. ]
      - [ 354., 181. ]
      - [ 252., 159. ]
      - [ 147., 265. ]
      - [ 137., 310. ]
      - [ 160., 336. ]
      - [ 150., 286. ]
   decision_functions:
      -
         sv_count: 60
         rho: -5.2422655379842862e+00
         alpha: [ 1.6016695962466507e-02, 3.8324859253526404e-02,
             2.2434920856429893e-02, 1.7348597156672328e-02,
             7.3306463194440811e-03, 3.4844456819442971e-03,
             1.8253554655931190e-02, 8.0690842404812328e-03,
             3.1898215265570455e-02, 5.2583893973543995e-02,
             3.0610315550162518e-03, 5.0809482421063916e-02,
             2.1293546018015318e-02, 7.6739270287657386e-03,
             1.1003928164144321e-02, 1.4802891400633634e-02,
             5.7983622972315350e-03, 6.3223756830433700e-03,
             6.5705299409515708e-02, 1.2373197497479461e-02,
             2.3814630524593747e-02, 4.8034708736214279e-02,
             2.6051010939725415e-02, 3.4596371467344625e-03,
             5.3743565572009676e-02, 3.5494157427094830e-02,
             7.0902464390744605e-03, -3.3131885230953139e-03,
             -3.0339270454866371e-03, -5.1330554855693556e-03,
             -6.1930964536235471e-03, -3.0061325807503276e-02,
             -1.7310116958119869e-02, -2.3081832405199138e-02,
             -3.4072175513336043e-03, -7.6739270287657386e-03,
             -4.2481543868532236e-03, -9.1685625464138446e-03,
             -6.0290041072331513e-03, -3.1505784917548997e-02,
             -4.3192574954094939e-02, -6.1721057887938000e-03,
             -1.1732076581585477e-02, -1.9778003165086298e-02,
             -4.8429768999418185e-02, -1.7430477279074878e-02,
             -1.1505103923191980e-02, -3.5143664040616550e-02,
             -6.7350639626801902e-03, -1.2373197497479461e-02,
             -7.5236675917021460e-03, -2.2818795211233145e-02,
             -1.8342200486633028e-02, -1.6304128303862620e-02,
             -2.1210572552903005e-02, -2.6910491446362809e-02,
             -7.8093536686000831e-03, -8.4626173022525716e-02,
             -6.3008095757350726e-03, -3.7779490358041463e-02 ]
         index: [ 0, 1, 2, 3, 4, 5, 6, 7, 8, 9, 10, 11, 12, 13, 14, 15,
             16, 17, 18, 50, 43, 44, 45, 46, 47, 48, 49, 24, 25, 26, 27,
             28, 29, 30, 31, 32, 33, 34, 35, 36, 37, 38, 39, 40, 41, 19,
             42, 20, 21, 22, 23, 51, 52, 53, 54, 55, 56, 57, 58, 59 ]
